digraph Tree {
node [shape=box] ;
0 [label="X[0] <= 0.5\ngini = 0.468\nsamples = 623\nvalue = [390, 233]"] ;
1 [label="X[4] <= 0.5\ngini = 0.318\nsamples = 413\nvalue = [331, 82]"] ;
0 -> 1 [labeldistance=2.5, labelangle=45, headlabel="True"] ;
2 [label="X[1] <= 26.269\ngini = 0.272\nsamples = 381\nvalue = [319, 62]"] ;
1 -> 2 ;
3 [label="X[1] <= 7.133\ngini = 0.172\nsamples = 285\nvalue = [258, 27]"] ;
2 -> 3 ;
4 [label="gini = 0.0\nsamples = 22\nvalue = [22, 0]"] ;
3 -> 4 ;
5 [label="X[1] <= 7.183\ngini = 0.184\nsamples = 263\nvalue = [236, 27]"] ;
3 -> 5 ;
6 [label="gini = 0.0\nsamples = 1\nvalue = [0, 1]"] ;
5 -> 6 ;
7 [label="X[1] <= 7.746\ngini = 0.179\nsamples = 262\nvalue = [236, 26]"] ;
5 -> 7 ;
8 [label="X[1] <= 7.24\ngini = 0.095\nsamples = 40\nvalue = [38, 2]"] ;
7 -> 8 ;
9 [label="X[1] <= 7.227\ngini = 0.198\nsamples = 18\nvalue = [16, 2]"] ;
8 -> 9 ;
10 [label="gini = 0.278\nsamples = 6\nvalue = [5, 1]"] ;
9 -> 10 ;
11 [label="X[2] <= 0.5\ngini = 0.153\nsamples = 12\nvalue = [11, 1]"] ;
9 -> 11 ;
12 [label="gini = 0.18\nsamples = 10\nvalue = [9, 1]"] ;
11 -> 12 ;
13 [label="gini = 0.0\nsamples = 2\nvalue = [2, 0]"] ;
11 -> 13 ;
14 [label="gini = 0.0\nsamples = 22\nvalue = [22, 0]"] ;
8 -> 14 ;
15 [label="X[1] <= 13.931\ngini = 0.193\nsamples = 222\nvalue = [198, 24]"] ;
7 -> 15 ;
16 [label="X[1] <= 13.681\ngini = 0.215\nsamples = 171\nvalue = [150, 21]"] ;
15 -> 16 ;
17 [label="X[1] <= 7.798\ngini = 0.208\nsamples = 170\nvalue = [150, 20]"] ;
16 -> 17 ;
18 [label="X[1] <= 7.785\ngini = 0.285\nsamples = 29\nvalue = [24, 5]"] ;
17 -> 18 ;
19 [label="X[5] <= 1.5\ngini = 0.227\nsamples = 23\nvalue = [20, 3]"] ;
18 -> 19 ;
20 [label="X[1] <= 7.763\ngini = 0.245\nsamples = 21\nvalue = [18, 3]"] ;
19 -> 20 ;
21 [label="gini = 0.278\nsamples = 12\nvalue = [10, 2]"] ;
20 -> 21 ;
22 [label="gini = 0.198\nsamples = 9\nvalue = [8, 1]"] ;
20 -> 22 ;
23 [label="gini = 0.0\nsamples = 2\nvalue = [2, 0]"] ;
19 -> 23 ;
24 [label="gini = 0.444\nsamples = 6\nvalue = [4, 2]"] ;
18 -> 24 ;
25 [label="X[1] <= 7.91\ngini = 0.19\nsamples = 141\nvalue = [126, 15]"] ;
17 -> 25 ;
26 [label="X[1] <= 7.865\ngini = 0.097\nsamples = 39\nvalue = [37, 2]"] ;
25 -> 26 ;
27 [label="X[1] <= 7.842\ngini = 0.165\nsamples = 11\nvalue = [10, 1]"] ;
26 -> 27 ;
28 [label="gini = 0.0\nsamples = 2\nvalue = [2, 0]"] ;
27 -> 28 ;
29 [label="X[5] <= 1.5\ngini = 0.198\nsamples = 9\nvalue = [8, 1]"] ;
27 -> 29 ;
30 [label="gini = 0.245\nsamples = 7\nvalue = [6, 1]"] ;
29 -> 30 ;
31 [label="gini = 0.0\nsamples = 2\nvalue = [2, 0]"] ;
29 -> 31 ;
32 [label="X[1] <= 7.892\ngini = 0.069\nsamples = 28\nvalue = [27, 1]"] ;
26 -> 32 ;
33 [label="gini = 0.0\nsamples = 2\nvalue = [2, 0]"] ;
32 -> 33 ;
34 [label="gini = 0.074\nsamples = 26\nvalue = [25, 1]"] ;
32 -> 34 ;
35 [label="X[1] <= 7.988\ngini = 0.222\nsamples = 102\nvalue = [89, 13]"] ;
25 -> 35 ;
36 [label="X[5] <= 2.5\ngini = 0.444\nsamples = 12\nvalue = [8, 4]"] ;
35 -> 36 ;
37 [label="X[5] <= 1.5\ngini = 0.48\nsamples = 10\nvalue = [6, 4]"] ;
36 -> 37 ;
38 [label="gini = 0.444\nsamples = 9\nvalue = [6, 3]"] ;
37 -> 38 ;
39 [label="gini = 0.0\nsamples = 1\nvalue = [0, 1]"] ;
37 -> 39 ;
40 [label="gini = 0.0\nsamples = 2\nvalue = [2, 0]"] ;
36 -> 40 ;
41 [label="X[1] <= 12.938\ngini = 0.18\nsamples = 90\nvalue = [81, 9]"] ;
35 -> 41 ;
42 [label="X[1] <= 11.0\ngini = 0.153\nsamples = 72\nvalue = [66, 6]"] ;
41 -> 42 ;
43 [label="X[1] <= 9.425\ngini = 0.168\nsamples = 65\nvalue = [59, 6]"] ;
42 -> 43 ;
44 [label="X[1] <= 8.104\ngini = 0.13\nsamples = 43\nvalue = [40, 3]"] ;
43 -> 44 ;
45 [label="gini = 0.204\nsamples = 26\nvalue = [23, 3]"] ;
44 -> 45 ;
46 [label="gini = 0.0\nsamples = 17\nvalue = [17, 0]"] ;
44 -> 46 ;
47 [label="X[1] <= 9.673\ngini = 0.236\nsamples = 22\nvalue = [19, 3]"] ;
43 -> 47 ;
48 [label="gini = 0.375\nsamples = 8\nvalue = [6, 2]"] ;
47 -> 48 ;
49 [label="X[1] <= 10.335\ngini = 0.133\nsamples = 14\nvalue = [13, 1]"] ;
47 -> 49 ;
50 [label="gini = 0.0\nsamples = 2\nvalue = [2, 0]"] ;
49 -> 50 ;
51 [label="gini = 0.153\nsamples = 12\nvalue = [11, 1]"] ;
49 -> 51 ;
52 [label="gini = 0.0\nsamples = 7\nvalue = [7, 0]"] ;
42 -> 52 ;
53 [label="X[1] <= 13.25\ngini = 0.278\nsamples = 18\nvalue = [15, 3]"] ;
41 -> 53 ;
54 [label="gini = 0.305\nsamples = 16\nvalue = [13, 3]"] ;
53 -> 54 ;
55 [label="gini = 0.0\nsamples = 2\nvalue = [2, 0]"] ;
53 -> 55 ;
56 [label="gini = 0.0\nsamples = 1\nvalue = [0, 1]"] ;
16 -> 56 ;
57 [label="X[5] <= 1.5\ngini = 0.111\nsamples = 51\nvalue = [48, 3]"] ;
15 -> 57 ;
58 [label="gini = 0.0\nsamples = 20\nvalue = [20, 0]"] ;
57 -> 58 ;
59 [label="X[1] <= 22.465\ngini = 0.175\nsamples = 31\nvalue = [28, 3]"] ;
57 -> 59 ;
60 [label="X[2] <= 0.5\ngini = 0.1\nsamples = 19\nvalue = [18, 1]"] ;
59 -> 60 ;
61 [label="gini = 0.0\nsamples = 12\nvalue = [12, 0]"] ;
60 -> 61 ;
62 [label="X[1] <= 15.621\ngini = 0.245\nsamples = 7\nvalue = [6, 1]"] ;
60 -> 62 ;
63 [label="gini = 0.0\nsamples = 3\nvalue = [3, 0]"] ;
62 -> 63 ;
64 [label="X[1] <= 17.977\ngini = 0.375\nsamples = 4\nvalue = [3, 1]"] ;
62 -> 64 ;
65 [label="gini = 0.0\nsamples = 1\nvalue = [0, 1]"] ;
64 -> 65 ;
66 [label="gini = 0.0\nsamples = 3\nvalue = [3, 0]"] ;
64 -> 66 ;
67 [label="X[1] <= 23.35\ngini = 0.278\nsamples = 12\nvalue = [10, 2]"] ;
59 -> 67 ;
68 [label="gini = 0.0\nsamples = 1\nvalue = [0, 1]"] ;
67 -> 68 ;
69 [label="X[5] <= 2.5\ngini = 0.165\nsamples = 11\nvalue = [10, 1]"] ;
67 -> 69 ;
70 [label="X[1] <= 25.075\ngini = 0.278\nsamples = 6\nvalue = [5, 1]"] ;
69 -> 70 ;
71 [label="gini = 0.0\nsamples = 2\nvalue = [2, 0]"] ;
70 -> 71 ;
72 [label="gini = 0.375\nsamples = 4\nvalue = [3, 1]"] ;
70 -> 72 ;
73 [label="gini = 0.0\nsamples = 5\nvalue = [5, 0]"] ;
69 -> 73 ;
74 [label="X[1] <= 26.469\ngini = 0.463\nsamples = 96\nvalue = [61, 35]"] ;
2 -> 74 ;
75 [label="gini = 0.0\nsamples = 4\nvalue = [0, 4]"] ;
74 -> 75 ;
76 [label="X[5] <= 4.5\ngini = 0.447\nsamples = 92\nvalue = [61, 31]"] ;
74 -> 76 ;
77 [label="X[1] <= 379.925\ngini = 0.466\nsamples = 84\nvalue = [53, 31]"] ;
76 -> 77 ;
78 [label="X[1] <= 134.642\ngini = 0.457\nsamples = 82\nvalue = [53, 29]"] ;
77 -> 78 ;
79 [label="X[1] <= 116.638\ngini = 0.472\nsamples = 76\nvalue = [47, 29]"] ;
78 -> 79 ;
80 [label="X[1] <= 37.55\ngini = 0.463\nsamples = 74\nvalue = [47, 27]"] ;
79 -> 80 ;
81 [label="X[5] <= 1.5\ngini = 0.496\nsamples = 35\nvalue = [19, 16]"] ;
80 -> 81 ;
82 [label="X[1] <= 29.85\ngini = 0.499\nsamples = 31\nvalue = [15, 16]"] ;
81 -> 82 ;
83 [label="X[1] <= 27.135\ngini = 0.484\nsamples = 17\nvalue = [10, 7]"] ;
82 -> 83 ;
84 [label="gini = 0.5\nsamples = 12\nvalue = [6, 6]"] ;
83 -> 84 ;
85 [label="X[1] <= 29.1\ngini = 0.32\nsamples = 5\nvalue = [4, 1]"] ;
83 -> 85 ;
86 [label="gini = 0.0\nsamples = 3\nvalue = [3, 0]"] ;
85 -> 86 ;
87 [label="gini = 0.5\nsamples = 2\nvalue = [1, 1]"] ;
85 -> 87 ;
88 [label="X[1] <= 31.66\ngini = 0.459\nsamples = 14\nvalue = [5, 9]"] ;
82 -> 88 ;
89 [label="X[1] <= 30.25\ngini = 0.245\nsamples = 7\nvalue = [1, 6]"] ;
88 -> 89 ;
90 [label="gini = 0.0\nsamples = 2\nvalue = [0, 2]"] ;
89 -> 90 ;
91 [label="X[1] <= 30.75\ngini = 0.32\nsamples = 5\nvalue = [1, 4]"] ;
89 -> 91 ;
92 [label="gini = 0.375\nsamples = 4\nvalue = [1, 3]"] ;
91 -> 92 ;
93 [label="gini = 0.0\nsamples = 1\nvalue = [0, 1]"] ;
91 -> 93 ;
94 [label="X[1] <= 35.25\ngini = 0.49\nsamples = 7\nvalue = [4, 3]"] ;
88 -> 94 ;
95 [label="gini = 0.0\nsamples = 3\nvalue = [3, 0]"] ;
94 -> 95 ;
96 [label="gini = 0.375\nsamples = 4\nvalue = [1, 3]"] ;
94 -> 96 ;
97 [label="gini = 0.0\nsamples = 4\nvalue = [4, 0]"] ;
81 -> 97 ;
98 [label="X[1] <= 52.55\ngini = 0.405\nsamples = 39\nvalue = [28, 11]"] ;
80 -> 98 ;
99 [label="gini = 0.0\nsamples = 10\nvalue = [10, 0]"] ;
98 -> 99 ;
100 [label="X[1] <= 59.052\ngini = 0.471\nsamples = 29\nvalue = [18, 11]"] ;
98 -> 100 ;
101 [label="X[1] <= 56.198\ngini = 0.494\nsamples = 9\nvalue = [4, 5]"] ;
100 -> 101 ;
102 [label="X[1] <= 55.671\ngini = 0.48\nsamples = 5\nvalue = [3, 2]"] ;
101 -> 102 ;
103 [label="X[1] <= 54.271\ngini = 0.5\nsamples = 4\nvalue = [2, 2]"] ;
102 -> 103 ;
104 [label="gini = 0.444\nsamples = 3\nvalue = [2, 1]"] ;
103 -> 104 ;
105 [label="gini = 0.0\nsamples = 1\nvalue = [0, 1]"] ;
103 -> 105 ;
106 [label="gini = 0.0\nsamples = 1\nvalue = [1, 0]"] ;
102 -> 106 ;
107 [label="X[5] <= 1.5\ngini = 0.375\nsamples = 4\nvalue = [1, 3]"] ;
101 -> 107 ;
108 [label="gini = 0.444\nsamples = 3\nvalue = [1, 2]"] ;
107 -> 108 ;
109 [label="gini = 0.0\nsamples = 1\nvalue = [0, 1]"] ;
107 -> 109 ;
110 [label="X[5] <= 1.5\ngini = 0.42\nsamples = 20\nvalue = [14, 6]"] ;
100 -> 110 ;
111 [label="gini = 0.0\nsamples = 3\nvalue = [3, 0]"] ;
110 -> 111 ;
112 [label="X[1] <= 62.669\ngini = 0.457\nsamples = 17\nvalue = [11, 6]"] ;
110 -> 112 ;
113 [label="gini = 0.0\nsamples = 2\nvalue = [2, 0]"] ;
112 -> 113 ;
114 [label="X[1] <= 64.979\ngini = 0.48\nsamples = 15\nvalue = [9, 6]"] ;
112 -> 114 ;
115 [label="gini = 0.0\nsamples = 1\nvalue = [0, 1]"] ;
114 -> 115 ;
116 [label="X[1] <= 75.115\ngini = 0.459\nsamples = 14\nvalue = [9, 5]"] ;
114 -> 116 ;
117 [label="gini = 0.0\nsamples = 2\nvalue = [2, 0]"] ;
116 -> 117 ;
118 [label="X[1] <= 98.752\ngini = 0.486\nsamples = 12\nvalue = [7, 5]"] ;
116 -> 118 ;
119 [label="X[1] <= 86.737\ngini = 0.49\nsamples = 7\nvalue = [3, 4]"] ;
118 -> 119 ;
120 [label="X[5] <= 2.5\ngini = 0.48\nsamples = 5\nvalue = [3, 2]"] ;
119 -> 120 ;
121 [label="X[1] <= 77.008\ngini = 0.375\nsamples = 4\nvalue = [3, 1]"] ;
120 -> 121 ;
122 [label="gini = 0.0\nsamples = 1\nvalue = [0, 1]"] ;
121 -> 122 ;
123 [label="gini = 0.0\nsamples = 3\nvalue = [3, 0]"] ;
121 -> 123 ;
124 [label="gini = 0.0\nsamples = 1\nvalue = [0, 1]"] ;
120 -> 124 ;
125 [label="gini = 0.0\nsamples = 2\nvalue = [0, 2]"] ;
119 -> 125 ;
126 [label="X[2] <= 1.5\ngini = 0.32\nsamples = 5\nvalue = [4, 1]"] ;
118 -> 126 ;
127 [label="gini = 0.0\nsamples = 3\nvalue = [3, 0]"] ;
126 -> 127 ;
128 [label="X[1] <= 112.079\ngini = 0.5\nsamples = 2\nvalue = [1, 1]"] ;
126 -> 128 ;
129 [label="gini = 0.0\nsamples = 1\nvalue = [0, 1]"] ;
128 -> 129 ;
130 [label="gini = 0.0\nsamples = 1\nvalue = [1, 0]"] ;
128 -> 130 ;
131 [label="gini = 0.0\nsamples = 2\nvalue = [0, 2]"] ;
79 -> 131 ;
132 [label="gini = 0.0\nsamples = 6\nvalue = [6, 0]"] ;
78 -> 132 ;
133 [label="gini = 0.0\nsamples = 2\nvalue = [0, 2]"] ;
77 -> 133 ;
134 [label="gini = 0.0\nsamples = 8\nvalue = [8, 0]"] ;
76 -> 134 ;
135 [label="X[5] <= 4.5\ngini = 0.469\nsamples = 32\nvalue = [12, 20]"] ;
1 -> 135 ;
136 [label="gini = 0.0\nsamples = 19\nvalue = [0, 19]"] ;
135 -> 136 ;
137 [label="X[5] <= 6.5\ngini = 0.142\nsamples = 13\nvalue = [12, 1]"] ;
135 -> 137 ;
138 [label="gini = 0.0\nsamples = 8\nvalue = [8, 0]"] ;
137 -> 138 ;
139 [label="X[5] <= 7.5\ngini = 0.32\nsamples = 5\nvalue = [4, 1]"] ;
137 -> 139 ;
140 [label="X[1] <= 31.331\ngini = 0.444\nsamples = 3\nvalue = [2, 1]"] ;
139 -> 140 ;
141 [label="gini = 0.0\nsamples = 1\nvalue = [1, 0]"] ;
140 -> 141 ;
142 [label="gini = 0.5\nsamples = 2\nvalue = [1, 1]"] ;
140 -> 142 ;
143 [label="gini = 0.0\nsamples = 2\nvalue = [2, 0]"] ;
139 -> 143 ;
144 [label="X[5] <= 4.5\ngini = 0.404\nsamples = 210\nvalue = [59, 151]"] ;
0 -> 144 [labeldistance=2.5, labelangle=-45, headlabel="False"] ;
145 [label="X[1] <= 25.04\ngini = 0.329\nsamples = 183\nvalue = [38, 145]"] ;
144 -> 145 ;
146 [label="X[1] <= 10.481\ngini = 0.465\nsamples = 98\nvalue = [36, 62]"] ;
145 -> 146 ;
147 [label="X[1] <= 7.888\ngini = 0.5\nsamples = 43\nvalue = [21, 22]"] ;
146 -> 147 ;
148 [label="X[1] <= 6.99\ngini = 0.453\nsamples = 26\nvalue = [9, 17]"] ;
147 -> 148 ;
149 [label="gini = 0.0\nsamples = 1\nvalue = [1, 0]"] ;
148 -> 149 ;
150 [label="X[1] <= 7.744\ngini = 0.435\nsamples = 25\nvalue = [8, 17]"] ;
148 -> 150 ;
151 [label="gini = 0.0\nsamples = 4\nvalue = [0, 4]"] ;
150 -> 151 ;
152 [label="X[1] <= 7.867\ngini = 0.472\nsamples = 21\nvalue = [8, 13]"] ;
150 -> 152 ;
153 [label="X[1] <= 7.842\ngini = 0.494\nsamples = 18\nvalue = [8, 10]"] ;
152 -> 153 ;
154 [label="X[2] <= 1.0\ngini = 0.469\nsamples = 16\nvalue = [6, 10]"] ;
153 -> 154 ;
155 [label="X[1] <= 7.802\ngini = 0.444\nsamples = 15\nvalue = [5, 10]"] ;
154 -> 155 ;
156 [label="X[1] <= 7.763\ngini = 0.459\nsamples = 14\nvalue = [5, 9]"] ;
155 -> 156 ;
157 [label="gini = 0.444\nsamples = 12\nvalue = [4, 8]"] ;
156 -> 157 ;
158 [label="gini = 0.5\nsamples = 2\nvalue = [1, 1]"] ;
156 -> 158 ;
159 [label="gini = 0.0\nsamples = 1\nvalue = [0, 1]"] ;
155 -> 159 ;
160 [label="gini = 0.0\nsamples = 1\nvalue = [1, 0]"] ;
154 -> 160 ;
161 [label="gini = 0.0\nsamples = 2\nvalue = [2, 0]"] ;
153 -> 161 ;
162 [label="gini = 0.0\nsamples = 3\nvalue = [0, 3]"] ;
152 -> 162 ;
163 [label="X[1] <= 9.413\ngini = 0.415\nsamples = 17\nvalue = [12, 5]"] ;
147 -> 163 ;
164 [label="X[1] <= 9.1\ngini = 0.463\nsamples = 11\nvalue = [7, 4]"] ;
163 -> 164 ;
165 [label="X[1] <= 7.988\ngini = 0.42\nsamples = 10\nvalue = [7, 3]"] ;
164 -> 165 ;
166 [label="X[1] <= 7.91\ngini = 0.48\nsamples = 5\nvalue = [3, 2]"] ;
165 -> 166 ;
167 [label="gini = 0.0\nsamples = 1\nvalue = [1, 0]"] ;
166 -> 167 ;
168 [label="X[5] <= 1.5\ngini = 0.5\nsamples = 4\nvalue = [2, 2]"] ;
166 -> 168 ;
169 [label="gini = 0.444\nsamples = 3\nvalue = [1, 2]"] ;
168 -> 169 ;
170 [label="gini = 0.0\nsamples = 1\nvalue = [1, 0]"] ;
168 -> 170 ;
171 [label="X[1] <= 8.673\ngini = 0.32\nsamples = 5\nvalue = [4, 1]"] ;
165 -> 171 ;
172 [label="gini = 0.0\nsamples = 3\nvalue = [3, 0]"] ;
171 -> 172 ;
173 [label="X[3] <= 0.5\ngini = 0.5\nsamples = 2\nvalue = [1, 1]"] ;
171 -> 173 ;
174 [label="gini = 0.0\nsamples = 1\nvalue = [0, 1]"] ;
173 -> 174 ;
175 [label="gini = 0.0\nsamples = 1\nvalue = [1, 0]"] ;
173 -> 175 ;
176 [label="gini = 0.0\nsamples = 1\nvalue = [0, 1]"] ;
164 -> 176 ;
177 [label="X[1] <= 9.84\ngini = 0.278\nsamples = 6\nvalue = [5, 1]"] ;
163 -> 177 ;
178 [label="gini = 0.0\nsamples = 4\nvalue = [4, 0]"] ;
177 -> 178 ;
179 [label="X[2] <= 0.5\ngini = 0.5\nsamples = 2\nvalue = [1, 1]"] ;
177 -> 179 ;
180 [label="gini = 0.0\nsamples = 1\nvalue = [0, 1]"] ;
179 -> 180 ;
181 [label="gini = 0.0\nsamples = 1\nvalue = [1, 0]"] ;
179 -> 181 ;
182 [label="X[1] <= 14.096\ngini = 0.397\nsamples = 55\nvalue = [15, 40]"] ;
146 -> 182 ;
183 [label="X[1] <= 10.871\ngini = 0.165\nsamples = 22\nvalue = [2, 20]"] ;
182 -> 183 ;
184 [label="X[3] <= 0.5\ngini = 0.32\nsamples = 5\nvalue = [1, 4]"] ;
183 -> 184 ;
185 [label="gini = 0.444\nsamples = 3\nvalue = [1, 2]"] ;
184 -> 185 ;
186 [label="gini = 0.0\nsamples = 2\nvalue = [0, 2]"] ;
184 -> 186 ;
187 [label="X[1] <= 12.738\ngini = 0.111\nsamples = 17\nvalue = [1, 16]"] ;
183 -> 187 ;
188 [label="gini = 0.0\nsamples = 7\nvalue = [0, 7]"] ;
187 -> 188 ;
189 [label="X[3] <= 0.5\ngini = 0.18\nsamples = 10\nvalue = [1, 9]"] ;
187 -> 189 ;
190 [label="gini = 0.0\nsamples = 6\nvalue = [0, 6]"] ;
189 -> 190 ;
191 [label="X[2] <= 1.0\ngini = 0.375\nsamples = 4\nvalue = [1, 3]"] ;
189 -> 191 ;
192 [label="gini = 0.444\nsamples = 3\nvalue = [1, 2]"] ;
191 -> 192 ;
193 [label="gini = 0.0\nsamples = 1\nvalue = [0, 1]"] ;
191 -> 193 ;
194 [label="X[1] <= 15.373\ngini = 0.478\nsamples = 33\nvalue = [13, 20]"] ;
182 -> 194 ;
195 [label="X[2] <= 1.5\ngini = 0.375\nsamples = 8\nvalue = [6, 2]"] ;
194 -> 195 ;
196 [label="gini = 0.0\nsamples = 5\nvalue = [5, 0]"] ;
195 -> 196 ;
197 [label="X[1] <= 14.873\ngini = 0.444\nsamples = 3\nvalue = [1, 2]"] ;
195 -> 197 ;
198 [label="gini = 0.0\nsamples = 1\nvalue = [0, 1]"] ;
197 -> 198 ;
199 [label="gini = 0.5\nsamples = 2\nvalue = [1, 1]"] ;
197 -> 199 ;
200 [label="X[1] <= 24.075\ngini = 0.403\nsamples = 25\nvalue = [7, 18]"] ;
194 -> 200 ;
201 [label="X[1] <= 15.975\ngini = 0.34\nsamples = 23\nvalue = [5, 18]"] ;
200 -> 201 ;
202 [label="gini = 0.0\nsamples = 6\nvalue = [0, 6]"] ;
201 -> 202 ;
203 [label="X[1] <= 18.629\ngini = 0.415\nsamples = 17\nvalue = [5, 12]"] ;
201 -> 203 ;
204 [label="X[1] <= 17.25\ngini = 0.48\nsamples = 5\nvalue = [3, 2]"] ;
203 -> 204 ;
205 [label="X[1] <= 16.4\ngini = 0.444\nsamples = 3\nvalue = [1, 2]"] ;
204 -> 205 ;
206 [label="gini = 0.5\nsamples = 2\nvalue = [1, 1]"] ;
205 -> 206 ;
207 [label="gini = 0.0\nsamples = 1\nvalue = [0, 1]"] ;
205 -> 207 ;
208 [label="gini = 0.0\nsamples = 2\nvalue = [2, 0]"] ;
204 -> 208 ;
209 [label="X[1] <= 23.35\ngini = 0.278\nsamples = 12\nvalue = [2, 10]"] ;
203 -> 209 ;
210 [label="X[5] <= 2.5\ngini = 0.18\nsamples = 10\nvalue = [1, 9]"] ;
209 -> 210 ;
211 [label="X[2] <= 0.5\ngini = 0.375\nsamples = 4\nvalue = [1, 3]"] ;
210 -> 211 ;
212 [label="X[5] <= 1.5\ngini = 0.5\nsamples = 2\nvalue = [1, 1]"] ;
211 -> 212 ;
213 [label="gini = 0.0\nsamples = 1\nvalue = [0, 1]"] ;
212 -> 213 ;
214 [label="gini = 0.0\nsamples = 1\nvalue = [1, 0]"] ;
212 -> 214 ;
215 [label="gini = 0.0\nsamples = 2\nvalue = [0, 2]"] ;
211 -> 215 ;
216 [label="gini = 0.0\nsamples = 6\nvalue = [0, 6]"] ;
210 -> 216 ;
217 [label="X[1] <= 23.725\ngini = 0.5\nsamples = 2\nvalue = [1, 1]"] ;
209 -> 217 ;
218 [label="gini = 0.0\nsamples = 1\nvalue = [1, 0]"] ;
217 -> 218 ;
219 [label="gini = 0.0\nsamples = 1\nvalue = [0, 1]"] ;
217 -> 219 ;
220 [label="gini = 0.0\nsamples = 2\nvalue = [2, 0]"] ;
200 -> 220 ;
221 [label="X[1] <= 28.856\ngini = 0.046\nsamples = 85\nvalue = [2, 83]"] ;
145 -> 221 ;
222 [label="X[1] <= 28.231\ngini = 0.188\nsamples = 19\nvalue = [2, 17]"] ;
221 -> 222 ;
223 [label="X[2] <= 0.5\ngini = 0.105\nsamples = 18\nvalue = [1, 17]"] ;
222 -> 223 ;
224 [label="X[5] <= 1.5\ngini = 0.165\nsamples = 11\nvalue = [1, 10]"] ;
223 -> 224 ;
225 [label="gini = 0.0\nsamples = 4\nvalue = [0, 4]"] ;
224 -> 225 ;
226 [label="gini = 0.245\nsamples = 7\nvalue = [1, 6]"] ;
224 -> 226 ;
227 [label="gini = 0.0\nsamples = 7\nvalue = [0, 7]"] ;
223 -> 227 ;
228 [label="gini = 0.0\nsamples = 1\nvalue = [1, 0]"] ;
222 -> 228 ;
229 [label="gini = 0.0\nsamples = 66\nvalue = [0, 66]"] ;
221 -> 229 ;
230 [label="X[1] <= 165.963\ngini = 0.346\nsamples = 27\nvalue = [21, 6]"] ;
144 -> 230 ;
231 [label="X[1] <= 14.5\ngini = 0.219\nsamples = 24\nvalue = [21, 3]"] ;
230 -> 231 ;
232 [label="gini = 0.0\nsamples = 1\nvalue = [0, 1]"] ;
231 -> 232 ;
233 [label="X[1] <= 24.233\ngini = 0.159\nsamples = 23\nvalue = [21, 2]"] ;
231 -> 233 ;
234 [label="X[3] <= 0.5\ngini = 0.444\nsamples = 3\nvalue = [2, 1]"] ;
233 -> 234 ;
235 [label="gini = 0.0\nsamples = 1\nvalue = [0, 1]"] ;
234 -> 235 ;
236 [label="gini = 0.0\nsamples = 2\nvalue = [2, 0]"] ;
234 -> 236 ;
237 [label="X[1] <= 31.331\ngini = 0.095\nsamples = 20\nvalue = [19, 1]"] ;
233 -> 237 ;
238 [label="gini = 0.0\nsamples = 11\nvalue = [11, 0]"] ;
237 -> 238 ;
239 [label="X[1] <= 32.881\ngini = 0.198\nsamples = 9\nvalue = [8, 1]"] ;
237 -> 239 ;
240 [label="gini = 0.0\nsamples = 1\nvalue = [0, 1]"] ;
239 -> 240 ;
241 [label="gini = 0.0\nsamples = 8\nvalue = [8, 0]"] ;
239 -> 241 ;
242 [label="gini = 0.0\nsamples = 3\nvalue = [0, 3]"] ;
230 -> 242 ;
}
